// Weights from layer 0 to layer 1
// Weights feeding into layer 1, node 0
-0.10966274613773994
-0.19461988894573334
-0.32496827279101315
-0.32050228437431605
-0.34127383354521396
-0.4427006454078854
-0.2959464955802942
-0.47598677717814725
-0.6025471350852197
-0.41472210904929985
-0.4048644389703211
-0.5472351125967082
-0.32182496698139723
-0.027905475040185194
0.01478734831557406
0.14630845848657598
-0.24007295927873748
-0.3752703237235706
-0.19624779969133668
-0.23341870634641515
-0.13396010829912097
-0.14365179763145788
-0.2688100516838042
-0.18404212287460925
-0.17869733819843492
-0.13517716395146365
-0.18788184920317966
-0.12502291325551695
0.06550432821354911
0.1265470133168571
-0.1728801389523458
-0.33163293425187385
-0.32659351780536944
-0.23600415709744688
-0.19288942022156177
0.026891328034230014
0.024860438136933147
0.011570621452839014
0.022991539816314455
-0.012198303468747274
0.02337937182427724
0.12615637945371558
-0.029602549859407353
-0.09071287746110214
-0.041635707842105914
-0.12158257813498194
-0.5225089593221853
-0.768959953828213
-0.1599213438715372
-0.1407763227564165
-0.09656542831668431
-0.06414421907052907
-0.1327674104581479
-0.006550255589975146
0.0781821271631335
-0.13668717099982292
-0.17452348631143408
0.0875987112173772
0.03913990072684833
0.14507205383471297
-0.12591791419293075
-0.04430191904411321
-0.30962995335433324
-0.45669440437360653
0.03357242648927921
-0.10431282067748668
-0.049465010577791076
-0.09724398224222205
0.011284121993173057
0.060750208829934337
0.052405109726011714
-0.1379973262894678
-0.07009648385825895
0.03637113309501613
-0.03821319628952471
-0.15448402371149583
-0.2958714884173445
-0.04775475506782801
-0.21276569945071921
-0.2045016608027094
0.1753747709212499
-0.014322510182611445
-0.1597464268613307
-0.06379125733697269
-0.017116340378000493
0.004489943862387457
-0.09195110030540071
0.0350638295670785
-0.14497553985307338
-0.20879915649796024
-0.11730208389872032
-0.10135207243497268
-0.15175517391530838
-0.05564748803403668
-0.006041060066336181
0.23289321430113705
0.21025888995990713
0.24978174733524397
-0.04232415597773676
0.19858882562150815
0.02970821765708161
-0.2784906061617154
-0.09302168465680512
-0.003102276574351339
-0.028052396239706248
-0.1055066686158608
-0.12188593930603966
-0.19938385462490726
-0.09691495039494072
-0.13239520774774144
0.3700014845324558
0.5378506433673583
0.2990581489385873
0.314443497890566
0.11217514005722394
-0.13575191942167394
-0.10052620817657654
-0.06933094177043603
-0.23898614471923768
0.022937993017467274
0.06776676262237893
-0.13230246775196666
0.14503554029344468
-0.056640024251305446
0.027617173762547353
0.036380713492644295
0.24791633444440248
0.39964966521966455
0.4021096146381768
0.2254514628671479
-0.10504808931722492
-0.1056362404023887
0.08363253340046861
0.0803533145318338
-0.11870126235487596
-0.0964568922590659
-0.17472795155941595
0.014582468704035767
-0.08409403267096521
0.18870108249865172
-0.030322612622031418
0.3105562063094222
0.4591423089330662
0.3618867664685424
0.24956104428115033
0.20280383919631878
0.0804659369020106
0.01627532809929627
0.03538964895017143
-0.0957833018636627
0.03598536339499054
0.010214975300448677
-0.05210612569787782
-0.09053660768822666
0.189670947722057
0.19222822845457135
0.3424297662087792
0.23709743558905919
0.23755706569693258
0.13937327966799976
0.33074894868455396
0.3420692422595047
0.38430611761149897
0.3223848966548132
0.3338311140466642
0.276884324631227
0.2360066513692766
0.29614333587066727
0.12887231387122067
0.26042964502558147
0.23092775195798834
0.1404120325515758
0.2771067530651519
0.16958152195435172
0.03314434336593506
0.07824227497465958
0.0666215663297847
0.027948626851845862
0.14742295906228578
0.36528062090465346
0.3443378968228063
0.3235382192826475
0.23166236612476118
0.38190733162622037
0.2391142593703786
0.35468242780758474
0.26703987714593874
0.17234238189853737
0.11803998222069426
0.14118996670784334
0.015240193593502153
-0.11655448075507976
0.07417000416115148
-0.16007813096974707
0.09104500814933501
0.25842826349844145
0.1490895028490133
0.057668752757204435
0.3568017257784979
0.32636298967793237
0.37766470359645044
0.3305120341462751
0.26077247538140674
0.19807212133293411
0.006186998362168668
-0.050806406976840135
-0.2322823254493014
-0.06834935908265735
-0.002040028083087213
-0.01981811426979608
0.2083724275197052
-0.05918436034310292
-0.004847980043590918
0.0125469714622283
0.2248709053717117
0.24306340688402306
0.046784333827578926
0.21035343410792734
0.05359170826189458
0.17657068560032327
0.055405941287069854
0.20502857253659573
0.0337201745417946
0.06529094402871805
0.15399512192642878
0.03657409109962406
-0.021975292900678754
-0.15547376164563906
-0.09533937742045322
0.14017708311353
0.1403834259265272
-0.1759180397818191
-0.0047764694343755435
-0.09715153205105913
0.12914707860837948
0.00529537891905104
0.05536542018995978
0.05039302125854326
-0.007664302013875333
0.045144659118515305
-0.07523359318688878
0.018436417770617133
-0.1090490182283721
0.001570622941115536
-0.12199088808015864
0.12247387059201836
-0.14139018277010476
0.11466195460230788
-0.1398700927388896
0.07842979359846938
0.03525334151910293
-0.11621476197374704
-0.21806642137454696
0.12711894786323436
0.02188059828830179
0.0018834052375308677
0.42564863898753685
// Weights feeding into layer 1, node 1
0.30036873209443216
0.3357866866616926
0.4525338974515325
0.29669219107798456
0.4222944338690685
0.49882833010996785
0.3572067039641362
0.17732302801210154
0.2910015286081735
0.22094793482579894
0.2960920510803442
0.33847955249429024
0.2834088168715926
0.3334113384788763
0.4536092456906379
0.5713463286326674
0.22327077014353208
0.23483965842382545
0.020340853249682853
0.18777840338674606
0.21976872807288844
0.36969070100156654
0.5096796835270766
0.19330619478838382
0.42543580307255113
0.17844126123696347
0.13994156255122464
0.10484424320937871
0.10968611711814681
-0.1347506581891006
0.015353453879957048
-0.1042315793687474
0.2999234707010514
0.03618238332077773
-0.02117154954549174
0.15482499091830895
0.13394688050040537
0.16502649440273892
0.15261020488252
0.1520290184961253
0.1704072273573359
0.25148662447314535
-0.03951394697913603
0.05534918136791127
-0.030851265114694017
0.06370751021886412
0.13656352562806567
0.20753716636156863
0.007523116573377348
-0.033438734535302314
0.06956187273883463
0.24474105639679752
0.16593045324644784
-0.03258640401000597
-0.04596416446230735
0.11376423123172036
0.1388122010313113
-0.026558108895034807
-0.09977587096829897
-0.04319213956751301
0.0398867774780448
0.07327831912878939
0.13724495893084643
0.15169156567542355
-0.19498016257067682
-0.2804411499538516
-0.028792974682554356
-0.21526595582894778
-0.10371828023768483
-0.1425571164450404
-0.10727310397206875
0.050045028244257855
0.06463576008373198
0.09240708368211663
0.1595722249236801
0.3350739137306921
0.25651946074067367
0.08057640415077325
0.09389529638211579
-0.008002284017884023
-0.25891401918285306
-0.18910215334499572
-0.13765697726544898
-0.19638727042707824
0.1144047338624211
0.03846064502635481
-0.07971226050378521
-0.04205634941613461
0.2483290839467171
0.28885369718679116
0.20568316487103933
0.3499211082803617
0.44655058064280106
0.024002921159740957
-0.07067538633993271
-0.2931344868742041
-0.3082866084304231
-0.32809779541851025
0.10976091473163435
0.02136051137051582
-8.247970009445171E-4
0.15330191473616836
0.17939994216616809
0.2152076082730505
0.3299201211916689
0.024714038894011227
0.060155099984921974
0.2863389248032784
0.29021182116868327
0.0022511030077242804
-0.26798253799939964
-0.4585862069642585
-0.34168996890322095
-0.3481732021593306
-0.170725625687012
-0.11536845238635207
-0.05241099094593305
-0.13118979387101204
0.33079942607801904
0.15896480137930283
0.02503522839652814
-0.08613834788888297
-0.012746488083435413
0.19892826229790314
0.09939180866305851
0.11588357582164832
0.12187184090864635
-0.17984537984559237
-0.19280610394786868
-0.3654386052328177
0.026707497021853478
-0.13277283772639423
-0.24140464135710535
0.023189446237354704
0.011684374932669252
0.19597104965161144
0.03384721636912808
0.17076955475398378
0.0712073822875776
0.00849595702841579
0.12506039544446526
-0.05173185645475375
-0.16611482751638276
-0.1337400453255389
-0.47529466745761323
-0.5029008986589268
-0.4138341798401582
-0.0579271324412821
-0.04172308530696114
0.2158487460918353
0.09700528121259151
0.15797024482760266
0.12345947664541523
-0.02249353317261798
-0.16638174951898285
-0.43225947639556767
-0.24706155877854316
-0.05715875953678449
-0.1603482589556758
-0.13015924160456196
-0.2851588271581623
-0.7022961976947496
-0.4392015399577072
-0.2654560770851046
0.0609023484927198
0.10036156888650394
-0.06936679013973565
0.12335606108119015
0.013258379265887
-0.2600043405329627
-0.20799192182376627
-0.049981447978346236
-0.1266740123769097
-0.23473112968984422
-0.1722085372489233
-0.21191281803253506
-0.2524956695006382
-0.3160984620157674
-0.4003531197319184
-0.27790195498598036
-0.12770606438695445
-0.16733833181323893
0.027688482577319807
-0.10974100733108268
-0.11381424356910673
-0.22738228980915606
-0.11432547384773502
-0.15502799383427351
-0.14344683432479308
-0.2611209100895055
-0.2712435118311576
-0.050645960193024496
-0.4991781654728251
-0.3525915144771767
-0.3332326062993631
-0.3419777872418616
-0.2040540400656278
-0.16096420171854486
-0.10727884367227489
-0.1034214751875575
-0.10110525175683932
-0.1284710290167838
-0.09887032553271428
-0.14953047659546917
0.0898623333155396
0.15192729164026086
0.09401091013845683
-0.1750861773555607
-0.14688161553268586
-0.18154400602886758
-0.12527767464587009
-0.0590606835585367
-0.04471001247277119
0.1272072289571247
0.12463599862290649
0.06864749864399886
0.15334978983148606
-0.003863476884594769
0.12975980191564668
0.05352340809449012
0.25716040135746565
0.0448857146267538
0.12264776206505741
-0.028544162529938348
-0.1150208128491311
0.23569828580448532
0.09683677738280524
0.10585237706024446
0.08460514172634337
-0.2448128765302664
-0.02728722968636039
-0.08260437124710378
-0.21324024710024236
0.033289855219667305
-0.09145512388172655
0.033072277109156
0.03469375824705177
0.09486739847519741
0.1156815273783626
0.06899119042331188
0.2310375061593875
-0.011558447674834955
0.12418382435985012
0.028294918210515267
0.12031432789818673
-0.13094790719252705
0.15576842987303297
-0.10280415126904278
-0.18804040286648718
-0.09455476317569426
-0.03623622269240454
-0.03038448766422729
0.1141949431356842
0.05581143631954
0.1373476431311343
0.11091427056129115
0.5895221537145408
// Weights feeding into layer 1, node 2
-0.8976114716970098
-0.8415956324403778
-0.6900610486572606
-0.47933222772386236
-0.4041534645405033
-0.3228464207304741
-0.3651118524907063
-0.573264941556265
-0.2633655055543482
-0.1953438065315302
-0.32029594111900883
-0.1453728348185997
-0.48670960886309045
-0.7140723291155677
-0.9115424193040598
-0.8393483707552939
-0.6179819548284151
-0.19772590556492284
-0.039973837517717416
-0.46805602801971286
-0.3620386464021812
-0.07497638656595652
-0.2331797502689553
-0.09105613598609702
-0.2431022435507659
-0.4297772333252039
0.021609496733955028
-0.3695572693026083
-0.44601316043296735
-0.1454506221082763
0.08076173339026821
0.04886308318423463
-0.27249039047002127
0.03555379265303508
0.2254893725065334
-0.25695441785990014
-0.1875269654729146
-0.02889129051847458
0.2154757338995223
-0.08382914102590885
-0.21834096346853105
-0.38140082812803844
0.20220441133428824
0.0705744242336481
0.2280098847755071
-0.1411356666705902
0.435879300161079
0.2928817243207259
0.2730440162664887
0.262874748394316
0.3847384308937429
-0.07723684762064761
0.036752183299872745
0.005824537071295471
0.14210362581050495
0.10006379077386118
0.07222252587216325
0.018968558627833924
0.33630753464859225
0.5406682552217148
0.29218559863674076
0.5988091664879465
0.39230610168532515
0.6353735419834537
0.43527372797884434
0.5697852653553076
0.22969410699422915
0.26275566420687246
0.12046972543822364
0.3158925147278078
0.6982494361043958
0.42279899307609553
0.4130237870746716
0.47999470825975443
0.46739151143348545
0.5058337013550627
0.4619585924761488
0.8069859804518484
0.977247521821624
0.9306648437603822
0.39797541532161157
0.19648921047658516
0.7702128787850364
0.2976830975176867
0.4818211080321038
0.5597202883330565
0.109801284402242
0.0780470617019851
0.23449035413284447
0.11129840913686129
0.35048900026820146
0.33309275076528244
0.33069364743915697
0.49886307983238404
0.9255321970206667
0.5627255941690671
0.2392421740264499
0.09275124257491772
0.23544009005621178
-0.13217260492339475
-0.05574731213219997
0.23499765242374862
0.08413611841626456
0.16833987241771978
0.14352666767937924
0.26054785627481314
0.03277418731442056
0.10229818819328561
-0.045075172998325204
0.14530363042368588
0.4578453824288869
0.5594201522222895
-0.15721721032707686
-0.22087040072861638
-0.0018035809187836639
-0.06439807108973289
0.32118934890857403
0.2964991353200134
0.04978220787196674
-0.03705293127670816
0.018114881355617025
0.025030705202440447
0.21308950285041955
0.20726584094168582
0.030309837899756394
0.039367748069489464
-0.14023721314091148
0.14696484762385545
-0.2525540826823973
0.2628274747890492
0.1602332484357186
0.01012794457935379
0.14851345550702177
-0.10368066207104651
-0.07302314401555701
0.11247585351797004
0.27929594433489746
-0.11053942881963608
-0.32102128861546464
-0.12029251379422995
0.03744224802654225
0.17949470469762258
-0.37780993618319964
-0.38896067170522447
0.07782122052928492
0.04838695473610713
-0.1959429939089386
-0.0714266604383641
0.11563008774036163
0.15730480508641595
-0.11886797328797603
-0.3216681784097851
-0.206726803505574
-0.15854086844057647
-0.1161807633536256
-0.2375292810735717
0.11380934791904589
0.07533393909112303
-0.661289033503721
-0.2957240234443148
0.13679151119666635
0.3393715652873278
-0.1972201766683868
0.03308399983199493
0.04606268667635544
-0.05184648767472092
-0.026320555977740502
-0.022314575254674247
0.143718824136424
0.0698360548576081
-0.04947207023632729
-0.18554970748060687
0.06521707144794418
0.16017605127935655
-0.04560837892605515
-0.29004220631912075
0.27828320151323493
0.3490684015882622
0.11121929350620972
0.19007490793001394
-0.1329364897930346
0.14396732614020027
0.15873278883965883
0.048696734458525986
0.47046419793684874
0.20467636518470755
0.3965376136664862
-0.2718626094119559
-0.06258007845195332
-0.2081247858216711
-0.04864387123015055
-0.3447921333503794
-0.20130154062806532
-0.020366539816497865
-0.2567161252880462
0.04300003442621388
0.13667290314135874
0.045468411934600085
-0.18696545750528537
-0.02159364656352528
0.19002746213634442
0.018655507018701546
0.013935176176547418
-0.023002838633960843
0.17600091693950204
-0.07367969603738217
0.25215955858473
-0.1078998201033263
-0.08242066653953425
-0.0581594864080822
-0.14313746963485371
-0.3006762333468825
0.09159239075877411
-0.3102306672686951
-0.0891787607611119
-0.23471604775752317
0.09608961247280491
0.10185053479021762
0.23807872421058476
0.46319810410165124
0.1338243606241302
0.28271821378299455
0.15772154184170906
0.08017565951044642
0.13049383876453508
-0.2346288165995924
-0.08050346143368992
-0.06950219646782169
-0.3234614814001968
-0.3137772466888945
0.07239424923544245
-0.16241486837215444
-0.18422817549554543
-0.24694586333864926
-0.34658828472063835
-0.037604564604484574
-0.1259453028223495
0.04011981387511684
0.5224554355222918
-0.06561799604285627
-0.38599732247901847
-0.22652155926386713
-0.5905764405502782
-0.0030929311144239366
0.20109455720323677
-0.0686664547126432
0.23518021847922496
-0.19562736735252786
-0.19330165725138668
-0.1167516769078439
0.08368347998296426
0.1968517130722973
0.15376928031912793
0.2831994544949428
0.25750648259698894
0.043491260371089274
-0.4063088715468071
// Weights feeding into layer 1, node 3
-0.06648433484645438
-0.1091459695728162
-0.012063136594506474
0.03480847338193272
-0.1987379423726378
-0.09707132022326204
0.011381228401499162
-0.006840663603341861
0.16659194975831892
0.0328221660240513
0.3738559125439137
0.3789229615434009
0.4025011755125668
0.0649615908063702
0.2278184830077652
0.11408783757713903
-0.13429038176207914
-0.039216616304439476
0.13715915983319737
-0.1061777314413837
-0.2522524033034119
0.04471288122828852
-0.13265245935603082
0.24931720830139018
0.029253168434887917
0.21454144312556434
-0.0731916833416519
0.20287248677867273
-0.07375341717948194
-0.04537993343849585
0.1311729189289943
-0.04602996920260208
-0.29719032098671183
-0.12385773296838173
0.2037105964576824
-0.018585627013656396
0.14059025970345096
-0.04461551206137677
-0.14017683041049323
-0.2076432647131293
-0.20041794237050378
-0.09571913291906331
0.053217438394671905
-0.21928490102928547
0.11910828970531451
-0.03447845990066861
-0.08222802695095047
-0.02968906878569741
-0.269686436152583
-0.0036207507281226427
0.11969494844929492
0.07004495974644012
0.17598229926071676
-0.09212030238902019
-0.18271398469590233
-0.12373493088871446
-0.0014143383425774744
-0.19099639653949602
-0.14344452012640063
-0.523091576081736
-0.23326493020170014
-0.07322750313749972
-0.060715701950715156
-0.20840995079954597
0.3922435024983681
0.5878110112999343
0.14681544290271578
0.12143781196809078
0.07741936500232006
0.05112447867760361
0.05688624002698876
0.1184731144855114
0.24317753622271993
0.04294444216946603
-0.08809310440915251
0.01163402752684849
-0.3032482317804375
0.09283712813236902
-0.061339714097524645
-0.10305241145396793
0.48329512405761643
0.5632948455260177
0.3064986440576914
0.268951631215414
0.34125507149859086
0.2350630321800383
0.38554862727649253
-0.057942738851651625
-0.16319415131707005
-0.10724466263845414
-0.24078031540096825
0.015849388425994433
-0.23875099545951173
-0.1390179449920962
-0.19948567189852004
-0.3062772320798661
0.4597682932890487
0.49488489910783057
0.35502320518857916
0.2760536185662612
0.323768152829952
0.24245551625109832
0.04869329553655943
-0.029704074330105728
-0.06329720162439462
-0.0802822942406123
-0.06560919708848705
0.12526741003455033
-0.17249461673959313
-0.04195205605667736
-0.16259154149761723
0.1452598662274349
0.404287624238525
0.27871940556433733
0.07601058112414329
0.14978504540755885
0.13205658734586484
0.3080220590400049
0.05497137126619589
-0.015600828719523249
0.0029679828263873506
0.044843642577180806
-0.3487211405655834
-0.1539512237034036
-0.21322282820986493
-0.0859460727573719
-0.20119493948899286
0.12268529063381613
-0.004212645066803142
0.06271578592407843
0.07901402323167706
-0.0041361421691350885
0.11254523461557533
-0.3453019607331269
-0.13423641870595718
-0.15141607677387725
-0.08296351510783377
-0.04033982083690266
-0.053943291670246835
-0.09556857752804755
0.1651612890094967
0.17382868051397835
0.2895882247711674
0.12046921301467195
-0.1404184317852107
-0.1787189702789353
-0.14073742176894344
-0.27496149378340556
-0.4012787412536417
-0.13959254121275572
-0.1371767070933873
-0.43628435218326195
-0.21028336718778654
-0.14671701560099096
-0.2179242872572073
0.17631119156504424
0.2792778607894899
0.11550063933319335
0.21617935453411186
0.02094154274399204
-0.23674464592728894
-0.08818141774552783
-0.2382480034979855
-0.2808817782570924
-0.4949479159445847
-0.27189991059295926
-0.17178927376472106
-0.08661266275364848
-0.025626092458903384
-0.1898162379196638
0.038673362712868704
0.4255069285385047
0.4364866237724724
0.5145115565575651
0.6155985754322146
0.20498144939745902
0.03905481381705426
-0.2650315009651286
-0.09524462983419114
-0.2575074602028159
-0.27467135616165106
-0.26550366173934387
-0.27675145202947726
-0.16571148508768327
0.17058626045152905
0.1370256435515137
0.25197679001310136
0.4629314677756365
0.5337116875164227
0.5959043768305676
0.6348801678788368
0.3906766851123741
0.07628187196174037
-0.22558184050516109
0.04687495761771629
0.0715859085022032
-0.059257034342646786
-0.04334186591336417
-0.3659062847051336
0.06323838695146175
0.12547821612799107
0.06213431584643769
0.051723026112428745
0.18373178298321383
0.08813759201873383
0.11128605527563078
0.34502678838464557
0.4726146662523443
-0.036826926891930484
-0.0025761741468720727
-0.0906368700076506
-0.2326588440819104
-0.08056505030360415
-0.09989523310181884
-0.27634598242693337
0.0024412505025843212
-0.1533254858151364
-0.07813378834089214
-0.37567049570659866
-0.19628343216427396
-0.03976774454603313
0.07896860808825278
-0.005614447695508597
-0.12754638298243184
0.2678542179897649
-0.0431261984644105
-0.27498112392760543
-0.014430626195706906
0.18394834111452438
-0.09584640237507364
-0.09557910623034704
-0.0663091004559927
0.04764861892897985
-0.008900241049826787
-0.08905563463964859
0.11712846807303123
0.036305736792067764
-0.13386708382127144
-0.30837321678839436
-0.4549250349051926
0.25129392820541796
0.22920779314826528
0.05534761193053073
0.16100836926379714
-0.11634722383778022
-0.12409645133865183
-0.02935711598411906
-7.146333522197378E-4
0.020787399152197843
0.008180818197782469
-0.10396130005011063
0.026886492312166266
0.046416679037368444
-0.08042889115872102
-0.2319432177773489
-0.31157605556966134
-0.30460768959910206
// Weights feeding into layer 1, node 4
0.3384983236481375
0.2809344188858055
0.41306649037666054
0.3977218157937889
0.4081022958999226
0.16210531597156103
0.1853769312181606
0.4388982507520374
0.06683262242304595
0.13698042812380842
-0.15636615723238567
-0.04244465642854933
-0.20943265129269478
-0.01967183007486958
-0.0027666629509951563
-0.3016437906432962
0.25180585070894135
0.142682319434219
0.12359344231353374
0.14425747606175957
0.21656592106951789
0.23882299018569897
0.29044565520509424
0.10143757372828689
0.1257063423635712
0.10340425812595565
0.06191217064335212
0.004554669902524634
-0.062257850100997165
-0.04567672410165536
0.3546210581004964
0.05531873420888909
0.061181360145667635
0.21755702373771113
0.08325718579094062
0.02062038218364951
0.17946326104926222
0.11487859413642675
0.3304632701743508
0.12842101399599298
0.33627597701401357
0.3759076231275713
0.09873092386829171
0.31196636207881917
0.15455702695448148
0.17097421943799282
0.25896714126803844
0.036761074194963425
0.09917940367794535
-0.11879369323798263
-0.0407118458831324
0.027199129784245872
-0.2070545882435794
0.026956339230454224
0.11720430196592846
0.27334429128489884
0.3534712109919716
0.4955699913046759
0.5574494406511606
0.6038415754256897
0.4364179856424034
0.2512694656079559
0.6273305993843029
0.40618522589654354
-0.1939502570840796
-0.5595322603400552
-0.3464220670009481
-0.04408568826565985
-0.17900440102250198
-0.08106269662115785
-0.14187137695113433
-0.025438175739041002
-0.05265687857749573
0.19537453866577856
0.4395242637961057
0.3758019270197719
0.11005798909002255
0.46197917893368234
0.714066757379285
0.29500066997088475
-0.0022625867623996417
-0.22213998548072442
-0.07897859423741077
-0.06873632080716559
-0.21975811365314227
-0.2795751411918586
-0.15230083141167033
-0.12991375133809785
-0.021590677685353332
-0.04097078696821071
-0.09085023365821428
0.0965477653589043
-0.12282992391496142
0.26714728460533893
0.5161640239600055
0.5205990703020655
-0.029326563698776332
-0.04451987506104175
0.14312426214041685
0.0013558774153053696
-0.346293566536093
-0.3585478141692536
-0.2820904246419182
-0.09269910021574433
0.004760128096337316
0.027336119222734896
-0.003885704207638032
-0.010176630336277269
-0.028388173658610457
-0.1752990920275284
0.23565275925921392
0.42604987903904307
-0.11988411677482567
-0.1766819052855987
-0.052807035275379936
-0.00491170203578956
-0.10919179864231061
-0.13501693678398952
-0.06346426856900896
-0.1662301512963209
-0.4193721907432294
-0.19265783193487618
-0.1906970931297646
-0.22934805856810306
-0.15369528042933567
-0.20583386033338782
0.36906099169352496
0.3019159565437509
-0.01881383705852921
-0.27013134866854166
-0.19921050857258987
0.06363286428138835
-0.3303183120433435
-0.16276359626792852
-0.2584914928483855
-0.22985945846996086
-0.13596923504732208
-0.03821210459451372
-0.23543088236550017
-0.028129752663788754
-0.08957190936630553
0.1276429552117099
0.25581235063399926
0.2145791285039763
-0.008146658372175791
-0.20757108553956705
0.1271149708682293
-0.12671737867653396
-0.11469690156928201
-0.2528516946946052
-0.18179337276479948
0.11108869089503763
-0.13967585031571253
-0.18524424074583243
-0.2309440715421599
-0.15578022651951037
-0.14963936160508023
0.18289123809032284
0.023991224579460523
0.10239135415717966
-0.042936817918605444
-0.22676931415788948
0.11149704073417502
-0.12643532795068338
0.08573716575029171
-0.002025439743855947
-0.24181917320989774
-0.27326522020157734
-0.260098428608341
-0.27757686128425546
-0.1517892917645462
-0.1783316125248771
-0.15372779627799668
-0.11263583691219918
-0.2826748630523419
-0.08297281853790611
-0.22620964240229974
-0.20846143684406432
-0.10441967233678126
-0.09442184124310693
0.1947160222490801
0.13662986145325628
0.059446202455385344
-0.12812899063983732
-0.3158095832924906
-0.20569645431449257
-0.2213395029468497
-0.29338847245276173
-0.32130637833646103
-0.23466639054840943
-0.3437205141778575
-0.1978008406292869
-0.11902964274944733
-0.19663746087127668
-0.10395396642889006
-0.04112986692194517
-0.18283891936221258
-0.0301665171156405
0.2057130669272658
-0.04009100668015171
-0.17246913516388707
0.055380290193239284
-0.0040505735257570985
-0.2086909668251144
-0.0911438475040519
-0.20580407171223858
-0.13560148974985328
-0.1930121243206159
0.06584059273465168
-0.27464939490851276
0.04003310219706363
-0.1610979061621697
-0.07564608976917096
-0.15515887603188191
-0.14379254774406522
0.11427808563047498
0.2016427797008197
0.08910680240153854
0.29266921092650783
0.02530196851653566
-0.14361889629534644
-0.0675247078908367
-0.018980341639513232
0.11772900031421282
0.1124229369494391
-0.0012443520376635609
0.03048762085373358
-0.16357150477387156
-0.22405856145673042
0.03814954148056042
-0.04792910030258014
0.06659390215133155
-0.07606743866648431
0.039112139313254864
0.17731489896614006
0.11048363007943578
0.03605437438021574
0.25941260977961866
0.1493420596997422
0.18215268388818853
0.16914948143254968
-0.14894249536555837
0.025877238857886346
0.10896486117039116
-0.141193940317275
-0.20803788324639372
-0.15109544688050378
-0.03954511444586423
-0.2614736733403464
-0.02637007228182791
-0.1364032649493864
-0.12679290958699813
0.1864390161925304
0.2256186046966212
0.2754974033520359
0.21013451549719364
0.4988439146125646
// Weights feeding into layer 1, node 5
0.21071292781879566
0.09957177653982506
-0.010351938819433321
-0.07129777557218994
0.20958030666773095
0.128401514759191
-0.057021281950579594
-0.05386659142768713
0.0663757370981462
0.12570278729306436
0.32145759424757187
0.3174465075186924
0.2710645589114196
0.48764644264775975
0.547786682533645
0.5904761853425846
0.15630006015348763
0.025764423153218953
-0.04204741171181031
0.1336617199499409
0.22783283103077043
0.036433387123685664
0.003310781851460976
-0.030453739660029393
0.018411422387114573
0.078568248594569
0.13424556137379928
-0.010257923394060226
0.14888050736474534
0.07103006610321891
0.05686984221328858
0.20895891334564512
0.25011683846481636
0.11830284126084506
0.03671445599712753
0.10853100576337422
0.11580627633407353
0.005861774268377662
-0.0727296693113039
0.004032955064433679
0.028436686571172206
0.10839590456971016
-0.16839607632335613
-0.12063334187314811
-0.14038086811694042
0.016929082817732397
-0.03760340584098343
0.193373694087702
0.07401493369307478
-0.03423780689962639
-0.034721960129102176
0.09726431527339359
0.20834611917143478
-0.008810814395062072
-0.05636659840663256
0.056720516522577015
0.043973043222558475
-0.13882938524550428
-0.17603612878544947
-0.24753543159290292
-0.10330305729283959
-0.02951471083114538
-0.1192177771047753
-0.11706816970702669
-0.16775220779496583
-0.3233215757993274
0.17288887776226886
-0.009753029932658207
0.09004698387917323
-0.07988658059304228
-0.10241731323382444
0.0023953668150549327
-0.10701957771962022
-0.10563184857034978
-0.08916594624357771
0.15347107625247747
0.16519746576467748
-0.09604561318002576
-0.37277239505061655
-0.3612690096763127
-0.4466575530276151
-0.08786781616028072
0.07663269062291661
0.02298425631945023
0.038372770203638704
0.05444073618948262
-0.02166551515827432
6.146111776211693E-4
0.15611582469275836
0.1110442561596123
0.12597404430396497
0.3907458694331903
0.4432623639993896
-0.08474667360848022
-0.37861140949605193
-0.6163298719950095
-0.37235834516812893
-0.28369418122439427
-0.04835622543889468
0.040475706828964036
0.028165488958446415
0.10733118772527538
0.28320022805937545
0.1074736120241857
0.11858510515212947
-0.028778412986919768
0.17242106381715697
0.3306093406651006
0.2792236485851381
-0.1039402487105323
-0.6760266039734961
-0.6904767829856621
-0.3697678210333048
-0.15623531277086827
-0.1955268230297711
-0.0974157869956408
-0.07411945303971718
-0.02299871333685479
0.32487824302004137
0.11788363171755367
0.09693608106483104
-0.06937106842412678
0.2019305336624077
0.23938182563769728
0.1774036842618707
-0.0695765597110475
-0.14898706532695202
-0.30823865987220267
-0.18691950921817754
-0.34600644765394484
-0.07532707724502954
-0.2226183129962112
-0.16678691130348938
0.18441238755762865
0.26309690297868515
0.3428684740297065
0.29009237548269884
0.23794712275201957
0.16368685300507524
-0.022039227540329217
0.052206938479912826
-0.13612206947808883
-0.2511977298008064
-0.22584406088708567
-0.2266481121350694
-0.3460642180283036
-0.2572396191567247
-0.07013945110536672
-0.011012489286207027
0.13541366745537875
0.19549293575620147
0.23589745597030537
0.23179120508420323
0.0815091857644036
-0.10191081453067483
-0.408968570842757
-0.2234121018198775
7.607913266051727E-4
-0.06571248010724315
-0.2628640997455961
-0.14017142625213588
-0.3786593205634684
-0.18747253900710298
-0.19754064347345945
0.08430433031410851
-0.006204802117890071
0.04089398262907071
0.08230328699092045
0.04222235118157079
-0.1934362424817162
-0.2723418817831286
-0.18655445130063575
-0.28855558155075445
0.11215004934470389
0.02741685833204895
-0.1620956101998029
-0.24432633810832974
0.005713598414632463
0.09070078160581724
0.17424523906007477
-0.03287522133110385
-0.06553999373467517
0.17410999307607877
-4.94254819936299E-4
-0.0717338249571658
-0.2231761755848271
-0.3623130029750838
-0.20424129865078391
-0.09742300428148647
0.051380200115758244
0.010133469742823885
0.13047253462527716
-0.3186805528542676
-0.07497050158883961
0.107252023389724
-0.06362711737319988
0.032395233407456814
-0.037001324239244626
0.07989966502395654
-0.08345206839186879
-0.26114349499154094
-0.1979945843629497
-0.12726531541323394
-0.13352705144436564
0.021167252673920483
0.060540372798833224
0.09645715587138592
0.18054441841394606
-0.052527546713157965
-0.032997887707983065
0.12548376389842456
0.18689938435173867
0.11832171881665961
0.1567487623621294
0.17574758510324812
-0.07431382702564482
-0.0984834601866886
0.08495122002246705
0.21752619776601667
-0.14229404434578063
-0.037880068655370885
-0.0013946154807960372
0.2599696823567137
0.2001242812559294
0.09799685210622423
0.2523578152022842
0.22012051688845122
0.31756068991522
0.40375827200680736
0.25139629277072484
0.33870757806580964
0.034414514365125826
0.05001388171733945
0.21755711383134876
0.1511006124580725
0.056259853417736046
-0.052681307996976595
0.16446723094970983
0.15833907138953382
0.1119970046413005
0.22321483691873548
0.2717372050910743
0.2256898622498898
0.19400063797764097
0.25719459047306914
0.09077992374075247
0.12130785750320719
0.13940956890548864
0.337679456204348
-0.02578321598969424
0.015110763401967391
0.009161837848462981
-0.027760624372904354
-0.1568463572868503
0.006624916851263757
-0.01823818512857499
0.08942146848919591
// Weights feeding into layer 1, node 6
-0.2833488917073802
-0.24799995853869702
-0.25580828896240276
-0.09918458471137952
0.09156042686966781
-0.037861518063361244
0.014258759738020101
-0.09510344160394447
0.10830203275944206
0.2271282769812954
0.10137667767144891
0.14834353478999135
0.25428254722068094
0.420401254168512
0.5955074196906747
0.2609582912079431
-0.07954387505452597
-0.04501303053276903
0.24728100924369095
-0.0026050970632650384
-0.025107111085457948
0.052057835568709084
0.04820426252468158
0.03790636300905982
0.15786724679682285
0.19750023033716504
0.08660875899974632
0.14504344437869082
0.13833789738779032
0.055908230522819714
-0.3095657764747723
-0.14537120344451254
0.21838657005385032
-0.07987278975960709
-0.12567162807229917
0.014539693444636246
-0.30540686900160896
0.09807342218361113
-0.08368279825832096
-0.06607937577283836
-0.21690320450999756
-0.07042567502434942
-0.09486155651248732
-0.162680321965177
-0.2974018977610584
-0.26413676307663225
-0.09102734986791756
-0.05661758639749114
0.3588695375469982
0.29821090889555674
0.10696873991219182
0.10804620405797928
0.13831722151087675
0.2317415715022619
-0.022743854382671277
-0.3050851884202274
-0.7058416606088549
-0.37292916196810316
-0.14357928582133805
-0.20627039535372327
-0.2713021070201513
-0.32957643667358233
-0.40038938616424213
-0.11709710353093997
0.22566379535217018
0.4751018846984769
0.30568230035486615
0.1062812374438798
0.2338903362614935
0.11832075841035393
0.07760479752169801
-0.38561340484514556
-0.5255840278108461
-0.5529907949492482
-0.3168970686811668
-0.19315054828685155
-0.21825181275799727
-0.3060795886147679
-0.24042393681719376
-0.010971830917705181
0.20499901620729144
0.38859812375744834
-0.12036284119878742
0.16958960677995683
-0.11393972044834058
-0.0959981788810385
-0.23571468310239152
-0.37620911609511104
-0.3408374704264672
-0.18403319573537308
-0.08524333604144492
-0.2854691534713967
-0.2327558130116748
-0.042472275120741865
-0.20961924860440964
0.21339166113395422
0.06537502883875244
0.028943872245440355
-0.07597597667382774
-0.07556797058192126
-0.07966559336203008
0.0627496800415871
-0.22838220619013064
-0.20647750456814973
-0.38086112147006945
-0.32044030914560534
-0.40545340917918754
-0.20987171813845773
-0.3382447924672635
0.15079958255392745
0.1686819508157693
0.007265097914862782
0.11292028552531815
-0.06232868051618636
-0.16476996080942471
-0.04296884241858807
-0.12253312958007173
-0.2138487988192157
-0.5138190238930412
-0.193562657064251
-0.22409181456906074
-0.1708398274806977
0.1582697682070932
0.08065977874805377
-0.37255544854646233
-0.28147808610242836
-0.2101918539433402
-0.41979247775758016
-0.11519477054250166
0.08370263786196873
-0.11408317484120944
0.03928678549520099
-0.12384636871264375
-0.19426256869698275
-0.1565076728039391
-0.27732855675551443
-0.1465644716527874
-0.41154971788165035
-0.0517108284593217
-0.2817353109569426
-0.41909985337945616
-0.4218584792889079
-0.266096423950756
-0.35684715020592084
0.28089235245353184
0.3681838022126788
0.3088038169852542
0.09388013090325886
0.04657471033064754
0.10450908870195866
-0.24287030297775403
-0.45185435948713704
-0.10386729053955755
-0.15011383420474578
-0.2283386007759241
-0.23888269133030035
-0.37393260851456805
-0.4593076863742716
-0.3045436245071396
-0.2900641607593964
0.16313356299415066
0.5581755553248341
0.4052321320755977
0.35735866500166014
0.15619831147032476
0.00937498485352433
0.045130945663625376
-0.2712213919499795
-0.34606848279309177
-0.1275733098915501
-0.482087964522645
-0.38704230443145643
-0.3841934223272566
-0.37606141498622586
-0.2979176208229219
-0.0899868279454029
0.25629426663765603
0.5372962282043293
0.3535329892085492
0.18451476925701127
0.3020629649327114
0.18395736163824214
0.1749978560064521
-0.3142650945056257
-0.18934808839350295
-0.3517757623829951
-0.3350957772348451
-0.19396952710094992
-0.22909945103710258
-0.0377791831245503
-0.04578223677566952
-0.0478799877738274
0.5201028918434198
0.31878066026751906
0.027034099318491222
0.20718410821377456
0.3439626668026254
0.23311348168738372
0.423794683537248
0.10405067440623296
0.03194302216865501
0.1572736416560067
-0.04754670331853457
-0.05254516638835359
-0.012878083548138061
-0.0744174462305205
-0.11955939319907355
0.13716822345614796
0.21153722881523504
0.0480276876299923
0.25753602331254427
0.31381550083669046
0.24088919523562402
0.4084057855124948
0.46999577851812957
0.37249446540831693
0.4851295112787598
0.3178430817624806
0.3194302471114944
0.2966203673466537
0.1844374362588103
-0.28028373757098396
-0.2705091556149006
-0.060785268826994684
0.018346467369896757
0.27284979459650704
0.31900978498487187
0.42870412985466055
0.2509907694395817
-0.048383139768008114
0.29680472821617243
0.3410322977158406
0.2592622056749415
0.33147821091943824
0.4061766152318636
0.2772674880232579
0.3191647643732186
0.1278791396836831
-0.06080900010349188
0.21140359203825618
0.11890153642105092
0.36900446754080385
0.1439056018060811
0.1650590474273451
0.5715031419470468
0.5208303645566228
0.08756347322400829
0.19691708496064989
0.16527873912781985
0.2324750665248042
0.23483415430284793
0.1526422305423926
0.17035018351781445
0.37932021724070136
0.2890846305902426
0.16683282505702013
-0.440861521378871
// Weights feeding into layer 1, node 7
0.10935936796382643
0.24799131447254474
-0.024601606874597913
0.08245109263791338
-0.1157025060693541
-0.3880991969453016
-0.2148294141794458
0.058766784597727106
-0.2753874265777476
-0.48757129725564485
-0.22078406068202847
-0.640307424117729
-0.6121044444246686
-0.4354007884645682
-0.43786827205017903
-0.22685029697142872
0.32431848386058937
-0.00929923716165918
-0.2681526455510101
-0.12861891337897413
0.19822800255497283
-0.002125022470292154
-0.08673296972748655
-0.4094404440215404
-0.4020032791819205
-0.17072782038860512
-0.41841643936372647
-0.282127967033542
-0.01842342565550628
0.18812585002165932
0.11405004792597817
0.10421481176189479
-0.2009101168460442
-0.15613932870804864
-0.4521695164410889
-0.005179499244006596
0.1133819736104698
-0.21044348014568887
-0.13427363414967794
-0.23837691093343025
-0.2797110759464823
-0.39470227258904944
-0.3023489675130194
-0.20479898528513793
-0.18989678667172624
0.030922494243465614
-0.034435671681824404
-0.15358909911141866
-0.14293943360539582
-0.41070353597358505
-0.16621254508799646
-0.5865224084585036
-0.3112118006086197
-0.05996347451471946
-0.11514782878986035
0.05310648457289886
0.11806297557408306
0.3266916839307302
0.2825737340844319
0.26499939668702377
-0.26625543322382417
0.09132643893982267
-0.07231031555689402
-0.32929321188791383
-0.22733109482983802
-0.443610364582294
-0.2891134128843301
-0.20688257758984946
-0.09457402580305564
-0.23405684584054795
-0.2390600349151018
-0.18469448482891382
0.12821375863255963
0.26956947897064126
0.04001860359055036
-0.2012455165870024
-0.07009351946378041
-0.1528356800745691
-0.2942133204530623
-0.3563662386206881
-0.6944504115512637
-0.563463182553551
-0.018021216452059657
-0.25252132599096283
-0.18358557641807827
-0.16871663753587907
0.3081754756639622
0.3055663640374677
0.292547887657896
0.08400885834086587
0.2700281362106997
0.01743040347412437
0.10912023326828237
-0.2710566984456139
-0.563580864213552
-0.19332507246417438
-0.4778464165589942
-0.20283169553417946
-0.506528025566283
0.20743263048964838
0.08135116199720008
-0.04385659025505968
0.29773159122387843
0.2860892980828514
0.26361784805401545
0.10516721084017319
0.1249803692939057
-0.08739048612957102
0.36088663460239373
-0.2532303007168683
-0.3246823232744691
-0.2868332383906384
-0.2512649477890055
0.11117540052195865
-0.03777658379788942
-0.21599186533356482
0.1219929260834799
0.2543958621623638
0.1859757896654828
0.19787866260957288
0.4441516804067138
0.1766418179052126
0.025531068636733885
0.02945453134229957
0.43552974577092346
-0.027947280043267412
-0.39670483322828115
-0.1612236251651696
0.10883945283526694
0.02850135754117434
0.1473171132235771
0.21942128105153502
0.2852341008936556
0.35477461345192784
0.35344910857885536
0.20793543547691468
0.05588455576837223
0.52467332577577
0.14245184092765908
0.28212702372264914
0.4381159445916363
0.32612087733395095
0.2908924386376788
-0.06701375022295979
0.27158177355846996
0.469618889339717
0.356556166226311
0.1273348678299986
-0.01792039011200272
-0.07500691799892711
0.2099269238827284
0.2649500402504383
0.508782916536051
0.42225134608775255
0.39253485104259256
0.5881594383708806
0.2702403930900105
0.282384924797328
0.23882849535797068
0.011939024133096504
0.5710345379535958
0.9207521669947304
0.4279425945976409
0.32693004281505766
0.20060851395504936
0.4206810222785881
0.2690422400089719
0.3498227577102505
0.615540848464917
0.3657258566238921
0.4511762284746826
0.06837126133363985
-0.11302471235350914
0.10294484091000491
0.26977607963131106
0.003985573942144884
0.31732648019827286
0.6556391888372374
0.5251167989645618
0.8262409549934157
0.26148765871349217
0.17962711207133214
0.1849469599731806
0.46242957026821324
0.6270717592977975
0.3897916758052771
0.11322411691373221
0.09757352831147267
0.2720959173479546
0.1327383996239233
0.27224906047380604
0.1462161346175943
0.20164158252370623
0.298736037150508
0.31091143383682474
0.2895952203355155
0.31157947814662346
-0.07217342155770959
0.16887397905037074
0.1252668527791044
0.3010466797224051
0.15994841759999684
0.09365156841320862
0.4172317979217735
0.20518332617603374
0.5277948095536933
-0.11212125970442818
0.028770667943088846
-0.034095018597302996
-0.05011637829107303
-0.04088028165778897
-0.1476554708246217
-0.29196725332612466
-0.22498751271075834
-0.25652701044149134
-0.27927946448950325
-0.45412911605189926
0.17001220398206865
0.15408779005811538
0.18765054047987684
0.13388531055155037
0.2725198910547635
0.15324248695955
-0.0843664031707937
-0.13902270857169183
-0.5177091253488012
-0.2782845291771302
-0.11063463872363287
-0.10737989746182784
0.28973848957865656
-0.19501959309189745
-0.03472330747464251
-0.047436205901288254
0.015117307603331114
-0.04608214535597719
-0.17833560554034156
0.01335098677355118
0.3532458488496715
-0.11832134449009434
-0.16937119304898743
-0.24140095964968034
0.09535764530112556
-0.06646981411129009
0.07817044145497955
-0.09624261420459855
0.004866004496439423
-0.146161081802916
0.2213543782529629
0.13140170243069346
-0.32255495856732025
-0.01815144927706039
0.09649952319263662
-0.28525075495375307
-0.18041669826647042
-0.35654389178408985
0.06521004447732183
-0.09692595094098856
// Weights feeding into layer 1, node 8
0.692986672340901
0.4183264721416453
-0.041902420265200614
0.1916241675648832
-0.10151311563781354
0.14140382228172121
0.13760434039995054
-0.2920729363316475
0.235584634059589
0.13649043787520884
0.4744363906101421
0.5995854702203931
0.8151919098232846
0.3198105603273449
0.1634681217145722
-0.10262388729057581
0.028558124407089294
0.1825046341201169
0.16129129861879604
0.3649246446984505
0.06178235055505533
0.0019498588870860269
-0.07246157413187697
0.37127144688118563
0.2625257143917632
0.05453918671548974
-0.11745041367806487
0.10049811343388944
-0.07143431565404132
-0.46386007014808683
-0.3925364125805311
-0.005027593321739315
0.4182246834841422
0.4305544534840672
0.5402948791703714
0.3918915453478471
0.342966200975564
0.31455738190041027
0.20482697951780354
0.06426354642219158
0.22813901407949783
-0.03717277970465474
0.15843542760739104
0.008715585803470706
-0.03799384502646306
-0.22868340180119295
-0.17158054122263533
0.08452891255504869
0.2009983103770142
0.7003685671960224
0.4995313588162601
0.7148085176203187
0.713278571153479
0.20114382417344465
-0.18377670764060447
-0.31099111919210637
-0.48788012645581896
-0.29346210247836774
-0.394307123198526
-0.18726018784965617
0.21386005905882385
-0.14009500028873176
-0.03370675270385816
-0.19050224804971708
0.11109220081800233
0.5807788558910478
0.34936760095325686
0.0750378365298109
0.3293641717652399
0.056054597520557976
-0.1193389649984079
-0.16234403626947252
-0.16958315399588464
-0.369451247532947
-0.4639010842530361
-0.30828264618648654
-0.13570997508017027
-0.1596035363729258
-0.31551895178280004
0.3090420888155166
0.24474712282805247
0.41065544129018633
0.16945301396786608
0.47243527787923684
0.08149205462101972
-0.14403869551986767
-0.2632209307659015
0.04628990262681708
-0.1706580353758138
-8.868956439245549E-4
0.06661878830120906
-0.20758436225870477
-0.19393343503626026
0.12897984432876172
-0.09964763457755753
0.1887220971078173
0.1955204335567057
0.2903003797661984
0.1264183353080971
0.25356139360245
0.06199118126216913
0.10635194221915022
0.060267029518657776
-0.14873152653721303
0.08360653908909704
0.26262292323235475
-0.19655071271043
-0.061613368405727724
-0.003030618868137536
0.41079959416383544
0.1003600369192747
0.3670678186417795
0.3082715346050287
0.18926490785106115
0.3702134165470765
0.3713430921962104
0.07973914915186654
0.18920902113721141
-0.12740256500018332
-0.18578316203246772
0.2084606027610916
0.13671022627185353
0.0368856977244497
-0.2518249004000288
-0.11678971286007508
0.20212840091784626
0.4140349196900467
0.5184002150189225
0.06714844670246511
0.4062281073390176
0.2494324383338008
0.08191056897090761
0.16866161517109093
0.03800795429526741
0.11724641754153957
-0.09699939838137334
0.0317166573495272
-0.06413686993581308
-0.14227257192162565
0.23691210786630854
-0.1628663865983632
0.12587038411092039
0.2663116739589855
0.5824409469634825
0.3531922593755008
0.4829385783463968
0.48081169575835125
0.2709063311085045
0.08592640329489781
0.003285968297922699
-0.22384356806577818
-0.010278861740486032
0.10014929705280878
0.16485946960724696
0.49323939687746443
0.4050874649717197
0.31992972787278834
0.030058405132704337
0.2870935807881923
0.23442691152205927
0.3341893630790946
0.4982429573353077
0.23599256520284775
0.06378912119784137
-0.24167749538322073
0.014916088065336255
-0.06149506510306475
0.13787943432054794
0.30638059331165673
0.19418654439252586
0.3849761135463715
0.49285906468076984
0.4078733385769167
0.3097116902426687
0.35122926626156736
0.20734412563738383
0.3091464655293844
0.25295918877274143
0.10112219963461826
0.0411159356140979
-0.03464933521021063
0.036550203671452584
-0.046232592093387426
0.23104184991161505
0.034602501860130204
0.33482658546928146
0.5889483663235193
0.30240075559342916
-0.023060187372051826
0.08282505684396596
-0.08179923546436789
-0.1829613412953002
0.5573412902441529
0.10829414250195532
0.2061089970505188
0.4591402072287473
0.11921334860407497
0.05893967387687022
-0.1829116208471953
0.2481298500936587
0.1407241187674281
-0.10193487471866075
0.22657794381322255
-0.13662070955802788
-0.40250208423510764
-0.41723685102650643
-0.055827714187715524
0.004040791913612846
-0.019835847445587907
0.036686272122726786
-0.27170399792629657
-0.3022048650663712
-0.29078223882852117
-0.18079572519142267
-0.24855889264041423
-0.49032936876056477
-0.39268675740490305
-0.541930860140409
-0.6795152382193362
-0.3775676034427504
-0.36929082368286753
-0.2760451795027092
-0.6052969976090823
-0.35488742017095987
-0.18774993585360417
-0.24997671567709898
-0.1709814307470207
-0.17693948428771789
-0.5574234486365996
-0.028446869786655657
-0.09366741808247848
-0.3554855304121287
-0.2372125920675711
-0.5392538028090957
-0.5938563634554531
-0.4018644154636612
-0.47117093145871813
-0.7031881794186233
-0.5027704573196169
-0.4817962460264689
-0.3315980249819846
-0.15325398252276065
-0.017689198570676436
-0.1661515172485718
-0.01164213142277361
0.2015514484261794
0.22710190453094253
-0.19525948629325773
-0.08530107531500715
-0.05409218859161458
-0.3146230975641856
-0.42363686971803016
-0.2698693316564967
-0.19447169382659485
-0.395930457947919
-0.45685204501506044
-0.758928067364336
// Weights feeding into layer 1, node 9
0.13470371779677315
0.2074074223007211
0.2501045191285742
0.2531208959189187
0.33018236079776014
0.30599098736281793
0.18019396471923196
0.36166137728042175
0.45422189693554094
0.2430361564686165
0.10156972923793212
0.25182472266164213
0.20170984241065487
0.10645837456094662
0.04709363330106481
-0.2603219198740591
0.25075630600161264
0.19621916696354763
0.19138440627694386
0.014889941849398288
-0.01970918598444988
0.027074864457323624
0.1888345866297308
0.24299026861102702
0.08507259160839833
0.3772545166896559
0.17274851986455708
0.18217254962872367
-0.07000239198763253
0.012295007157501387
0.04886743833609973
0.08574557610112127
0.026638790701660326
0.127013422599666
0.017229497076705506
-0.07700587172234682
-0.0981302039717999
0.1512326798993015
-0.13054914445786495
-0.21193205464775924
-0.06557976747699984
0.01936422917011503
0.14650038050919478
-0.05596616040792191
-0.28293938451201234
0.10472926957539479
0.2614110036498665
0.3901924906229513
0.07030865719617317
0.07200447318972743
-0.035275917180290654
0.054814823709355205
0.057502304958410126
0.13282061070298795
-0.20143305046287244
-0.039619834696539895
-0.18608925296219142
-0.17032425880401775
-0.03427417615426571
-0.19756141919851447
-0.010224225111703945
0.163428170942535
0.4464639883178632
0.2301647812069501
-0.014895203876353832
-0.15764234956699816
0.04618925757865893
-0.04232529969415427
0.02299707271575797
0.039615340875502045
-0.11450145336863322
-0.07613523654821543
-0.08146655896008932
-0.4615093725244275
-0.1923694010266708
-0.0032278625752230673
0.06085683597775977
0.38230850948630163
0.3287914516358566
0.24633592520173517
-0.09373016125070699
-0.18701860653158095
0.011401719155441198
0.1598100418967393
-0.133080757787443
-0.2687851407694105
0.22789182626417556
-0.20442016795086507
-0.15269247115315193
-0.05428441182992513
-0.18982598345252172
-0.3401224572422932
-0.325618622226451
0.09722347321615253
0.08395080636258623
0.2028421228485844
-0.2158023869766144
-0.3304460587873967
0.028009862603324723
-0.4506805937214186
-0.25162907199617457
-0.09116303122898613
0.03613840073765304
-0.10517736601597555
-0.27067048140035294
-0.07558734337100095
-0.06970505167473853
-0.24627056151570914
-0.36571124175918834
-0.10732961224997739
-0.035990799783926754
0.037097066309835884
-0.1986076093730102
0.0727573624755335
-0.3134249368865115
0.010790141533382161
-0.1860334826694798
-0.16394584595122932
-0.13819641953517064
0.08880771542101337
-0.09617056368421574
-0.03768080968584787
0.0572638468314136
-0.05689641165152558
-0.17716599395535737
-0.558658229420727
-0.09946439916311725
-0.06180386021467645
-0.22385419607984905
-0.11756468598297154
-0.28778513190679195
0.032777069492168145
-0.165649334632392
-0.2316311991856957
-0.009062299624618086
-0.12900668276116897
0.21300564167956298
-0.11294311620052765
0.12113075398916243
-0.03709769505330238
-0.4659237965714157
-0.4423890992548969
-0.06409394828128967
0.12521167947908807
0.2271797036248829
0.12006471783280376
0.05602591754382895
-0.009454051730747861
-0.34594330852113575
-0.2631198899001741
-0.2083455970080558
-0.16528222681635604
0.003850144091927237
-0.03743449144447735
-0.15584566352090476
-0.18661335475690888
-0.6242691773732518
-0.3792962504040461
0.11360193292603184
0.17705682679815704
-6.634029757822277E-4
0.2721380375376791
0.5174285032660157
0.167161510540172
-0.1611705444432846
-0.2905287466575839
-0.22114169516614265
-0.3915638053016982
-0.4001895265478806
-0.2587369293711208
-0.21487894207553335
-0.11609530247315689
-0.32041816648933186
-0.18410712902455148
0.1195889957515037
0.009457156598696904
0.286491454420937
0.4033682165331729
0.29919705151517234
0.11115803495152121
0.04293288475865218
-0.2860389437744243
-0.16689097997957122
-0.5045482589641788
-0.4689352834070606
-0.4309983085824163
-0.5089946255514465
-0.23620260370986493
-0.17842379982945078
0.11317293209176252
0.22826512571346125
0.2881533788599488
0.7323362619567483
0.49839213349763867
0.2156322280590771
0.11586082226877938
0.017095213129144256
-0.05793798997568296
-0.031224843925324108
-0.05630210392599368
-0.318046626250533
-0.07876132081840002
-0.2739503882222261
-0.13695004662605598
-0.12226085798996478
-0.1041052472156104
0.36819657622837404
0.436780821317793
0.26719216172995386
-0.12962546399672867
0.07289048210044753
-0.026707222840094025
0.03431238193771968
0.10399782686523544
0.1197457973766013
0.18173047525251992
0.09991339958726304
0.1167531812367165
0.007462120905118678
-0.3477248666072751
-0.19671043149359096
-0.335376921447417
-0.12098181525010446
0.1444705464795938
-0.045703226451289845
0.02260368966937701
0.04806903954862186
0.2597951248524729
0.2874748739465968
0.3277524844975481
0.4118089378213928
0.6205946252409968
0.468325008594506
0.3777650669212111
0.34986413416414136
0.4066694040352165
0.052666948552321236
0.07507857038165877
-0.2282092675107836
0.036486963116547505
0.01830137850492667
0.2692771876377064
0.3646091307670904
0.21412990758040049
0.29697230233143007
0.2639500598419741
0.034768548388920066
0.043991111294609274
0.3869887604090679
0.028558335423969565
-0.18834295826258377
-0.14340768886166308
0.14228189973016478
0.007828933534675318
0.1199026055952797
0.026798079358331593
-0.8754817771566404
// Weights from layer 1 to layer 2
// Weights feeding into layer 2, node 0
0.3876415780284202
-2.305370909301212
0.1780645835743927
0.19915155696758027
1.1752894754456096
-3.0951092401080498
1.1656811326578953
-3.462796309788036
0.07946376006041239
1.397517847655416
-0.9565679733020533
// Weights feeding into layer 2, node 1
0.3240482830920234
0.9580648840473458
1.9001890204668046
-1.683617953589486
-0.7712807780204045
0.3807910889229764
-1.654859569603176
0.7239424782740411
-4.319416164595365
-3.5759908762758696
-0.16896559167334005
// Weights feeding into layer 2, node 2
-1.4012997398590645
-0.3614238055192597
-0.7431718227941223
-3.359842846054586
1.3810010661958319
-0.22023391197608475
3.2679056420466805
-0.4542784619563651
-3.145049450524837
1.1865673252226432
-1.1665195947235134
// Weights feeding into layer 2, node 3
-1.6047398815983918
0.23239954509057761
-3.1071550464529905
2.438152476302819
-0.02000111915690952
-0.07930563110930003
-3.374469049912591
1.014103533409087
-2.861347980539261
0.901557986590978
-1.0020839415430145
// Weights feeding into layer 2, node 4
1.2375498881866571
-2.322441626082893
0.8247593697488523
0.27626281943432623
-2.121595407814825
-2.9270484968752086
-1.1862302755898886
1.3103484483544166
0.848865097303255
-3.1298152081103066
-0.09448797743223461
// Weights feeding into layer 2, node 5
-1.2832262976891615
1.459514575301374
-3.7996882493128323
0.8074432555181239
-2.5422601651246484
0.4155266239271601
1.0993231614794141
-3.6237866225689372
1.2026843284864837
-0.47379318942362614
-0.7828778235126336
// Weights feeding into layer 2, node 6
1.2733101980092003
-3.724176161862476
-3.2944838694365366
-0.498303055121708
-2.2762212080977644
0.9942899394493412
1.2719824624270033
1.1511607926722938
-0.31980012881226955
1.2927132643979158
-2.0348302464587813
// Weights feeding into layer 2, node 7
-0.6904664314593598
0.4082915346789137
-2.842549365254103
-3.5847501408323152
0.726807280750878
0.4698093915926116
-2.602059340254612
0.5212941486858851
3.2041536316686834
-1.619584044751877
-1.0039593071262494
// Weights feeding into layer 2, node 8
-3.8380873946167435
-0.4471053432202903
2.4839693124404256
-1.196531113663308
-2.7220347996788035
-0.23241945713057743
0.1782184061894734
2.1426960113794387
1.1566671558846053
1.5156200882894535
-3.1965927581501035
// Weights feeding into layer 2, node 9
-2.789211045442612
0.7823747850805071
2.8797779182402463
0.9981758495084784
0.1627574892147956
0.04198759578011012
-2.673416497251113
-3.9715288230233026
-0.08648013368827241
-0.5000295832298499
-1.3765554444767132
